digraph Tree {
node [shape=box, style="filled, rounded", color="black", fontname="helvetica"] ;
edge [fontname="helvetica"] ;
0 [label="marital-status_Married-civ-spouse <= 0.5\ngini = 0.364\nsamples = 39073\nvalue = [29724, 9349]\nclass = <=50K", fillcolor="#eda977"] ;
1 [label="capital-gain <= 0.818\ngini = 0.119\nsamples = 21231\nvalue = [19881, 1350]\nclass = <=50K", fillcolor="#e78a46"] ;
0 -> 1 [labeldistance=2.5, labelangle=45, headlabel="True"] ;
2 [label="education-num <= 0.941\ngini = 0.092\nsamples = 20869\nvalue = [19866, 1003]\nclass = <=50K", fillcolor="#e68743"] ;
1 -> 2 ;
3 [label="gini = 0.045\nsamples = 16726\nvalue = [16337, 389]\nclass = <=50K", fillcolor="#e6843e"] ;
2 -> 3 ;
4 [label="gini = 0.252\nsamples = 4143\nvalue = [3529, 614]\nclass = <=50K", fillcolor="#ea975b"] ;
2 -> 4 ;
5 [label="age <= -1.324\ngini = 0.079\nsamples = 362\nvalue = [15, 347]\nclass = >50K", fillcolor="#42a1e6"] ;
1 -> 5 ;
6 [label="gini = 0.278\nsamples = 6\nvalue = [5, 1]\nclass = <=50K", fillcolor="#ea9a61"] ;
5 -> 6 ;
7 [label="gini = 0.055\nsamples = 356\nvalue = [10, 346]\nclass = >50K", fillcolor="#3fa0e6"] ;
5 -> 7 ;
8 [label="education-num <= 0.552\ngini = 0.495\nsamples = 17842\nvalue = [9843, 7999]\nclass = <=50K", fillcolor="#fae7da"] ;
0 -> 8 [labeldistance=2.5, labelangle=-45, headlabel="False"] ;
9 [label="capital-gain <= 0.551\ngini = 0.439\nsamples = 11938\nvalue = [8058, 3880]\nclass = <=50K", fillcolor="#f2be98"] ;
8 -> 9 ;
10 [label="gini = 0.414\nsamples = 11376\nvalue = [8047.0, 3329.0]\nclass = <=50K", fillcolor="#f0b58b"] ;
9 -> 10 ;
11 [label="gini = 0.038\nsamples = 562\nvalue = [11, 551]\nclass = >50K", fillcolor="#3d9fe6"] ;
9 -> 11 ;
12 [label="capital-gain <= 0.551\ngini = 0.422\nsamples = 5904\nvalue = [1785.0, 4119.0]\nclass = >50K", fillcolor="#8fc7f0"] ;
8 -> 12 ;
13 [label="gini = 0.456\nsamples = 5060\nvalue = [1782, 3278]\nclass = >50K", fillcolor="#a5d2f3"] ;
12 -> 13 ;
14 [label="gini = 0.007\nsamples = 844\nvalue = [3, 841]\nclass = >50K", fillcolor="#3a9de5"] ;
12 -> 14 ;
}