digraph Tree {
node [shape=box, style="filled, rounded", color="black", fontname="helvetica"] ;
edge [fontname="helvetica"] ;
0 [label="Sex_male <= 0.5\ngini = 0.473\nsamples = 891\nvalue = [549, 342]\nclass = Died", fillcolor="#f5cfb4"] ;
1 [label="Pclass <= 2.5\ngini = 0.383\nsamples = 314\nvalue = [81.0, 233.0]\nclass = Survived", fillcolor="#7ebfee"] ;
0 -> 1 [labeldistance=2.5, labelangle=45, headlabel="True"] ;
2 [label="Age <= 2.5\ngini = 0.1\nsamples = 170\nvalue = [9, 161]\nclass = Survived", fillcolor="#44a2e6"] ;
1 -> 2 ;
3 [label="Fare <= 88.775\ngini = 0.5\nsamples = 2\nvalue = [1, 1]\nclass = Died", fillcolor="#ffffff"] ;
2 -> 3 ;
4 [label="gini = 0.0\nsamples = 1\nvalue = [0, 1]\nclass = Survived", fillcolor="#399de5"] ;
3 -> 4 ;
5 [label="gini = 0.0\nsamples = 1\nvalue = [1, 0]\nclass = Died", fillcolor="#e58139"] ;
3 -> 5 ;
6 [label="Fare <= 28.856\ngini = 0.091\nsamples = 168\nvalue = [8, 160]\nclass = Survived", fillcolor="#43a2e6"] ;
2 -> 6 ;
7 [label="Fare <= 28.231\ngini = 0.182\nsamples = 69\nvalue = [7, 62]\nclass = Survived", fillcolor="#4fa8e8"] ;
6 -> 7 ;
8 [label="gini = 0.161\nsamples = 68\nvalue = [6, 62]\nclass = Survived", fillcolor="#4ca6e8"] ;
7 -> 8 ;
9 [label="gini = 0.0\nsamples = 1\nvalue = [1, 0]\nclass = Died", fillcolor="#e58139"] ;
7 -> 9 ;
10 [label="Parch <= 1.5\ngini = 0.02\nsamples = 99\nvalue = [1, 98]\nclass = Survived", fillcolor="#3b9ee5"] ;
6 -> 10 ;
11 [label="gini = 0.0\nsamples = 84\nvalue = [0, 84]\nclass = Survived", fillcolor="#399de5"] ;
10 -> 11 ;
12 [label="gini = 0.124\nsamples = 15\nvalue = [1, 14]\nclass = Survived", fillcolor="#47a4e7"] ;
10 -> 12 ;
13 [label="Fare <= 23.35\ngini = 0.5\nsamples = 144\nvalue = [72, 72]\nclass = Died", fillcolor="#ffffff"] ;
1 -> 13 ;
14 [label="Age <= 36.5\ngini = 0.484\nsamples = 117\nvalue = [48, 69]\nclass = Survived", fillcolor="#c3e1f7"] ;
13 -> 14 ;
15 [label="Embarked_S <= 0.5\ngini = 0.472\nsamples = 110\nvalue = [42, 68]\nclass = Survived", fillcolor="#b3daf5"] ;
14 -> 15 ;
16 [label="gini = 0.406\nsamples = 53\nvalue = [15, 38]\nclass = Survived", fillcolor="#87c4ef"] ;
15 -> 16 ;
17 [label="gini = 0.499\nsamples = 57\nvalue = [27, 30]\nclass = Survived", fillcolor="#ebf5fc"] ;
15 -> 17 ;
18 [label="Age <= 55.0\ngini = 0.245\nsamples = 7\nvalue = [6, 1]\nclass = Died", fillcolor="#e9965a"] ;
14 -> 18 ;
19 [label="gini = 0.0\nsamples = 6\nvalue = [6, 0]\nclass = Died", fillcolor="#e58139"] ;
18 -> 19 ;
20 [label="gini = 0.0\nsamples = 1\nvalue = [0, 1]\nclass = Survived", fillcolor="#399de5"] ;
18 -> 20 ;
21 [label="Parch <= 0.5\ngini = 0.198\nsamples = 27\nvalue = [24, 3]\nclass = Died", fillcolor="#e89152"] ;
13 -> 21 ;
22 [label="gini = 0.0\nsamples = 1\nvalue = [0, 1]\nclass = Survived", fillcolor="#399de5"] ;
21 -> 22 ;
23 [label="Age <= 5.5\ngini = 0.142\nsamples = 26\nvalue = [24, 2]\nclass = Died", fillcolor="#e78c49"] ;
21 -> 23 ;
24 [label="gini = 0.444\nsamples = 3\nvalue = [2, 1]\nclass = Died", fillcolor="#f2c09c"] ;
23 -> 24 ;
25 [label="gini = 0.083\nsamples = 23\nvalue = [22, 1]\nclass = Died", fillcolor="#e68742"] ;
23 -> 25 ;
26 [label="Age <= 6.5\ngini = 0.306\nsamples = 577\nvalue = [468, 109]\nclass = Died", fillcolor="#eb9e67"] ;
0 -> 26 [labeldistance=2.5, labelangle=-45, headlabel="False"] ;
27 [label="SibSp <= 2.5\ngini = 0.444\nsamples = 24\nvalue = [8, 16]\nclass = Survived", fillcolor="#9ccef2"] ;
26 -> 27 ;
28 [label="gini = 0.0\nsamples = 15\nvalue = [0, 15]\nclass = Survived", fillcolor="#399de5"] ;
27 -> 28 ;
29 [label="Fare <= 31.331\ngini = 0.198\nsamples = 9\nvalue = [8, 1]\nclass = Died", fillcolor="#e89152"] ;
27 -> 29 ;
30 [label="gini = 0.0\nsamples = 5\nvalue = [5, 0]\nclass = Died", fillcolor="#e58139"] ;
29 -> 30 ;
31 [label="Fare <= 35.538\ngini = 0.375\nsamples = 4\nvalue = [3, 1]\nclass = Died", fillcolor="#eeab7b"] ;
29 -> 31 ;
32 [label="gini = 0.0\nsamples = 1\nvalue = [0, 1]\nclass = Survived", fillcolor="#399de5"] ;
31 -> 32 ;
33 [label="gini = 0.0\nsamples = 3\nvalue = [3, 0]\nclass = Died", fillcolor="#e58139"] ;
31 -> 33 ;
34 [label="Pclass <= 1.5\ngini = 0.28\nsamples = 553\nvalue = [460, 93]\nclass = Died", fillcolor="#ea9a61"] ;
26 -> 34 ;
35 [label="Fare <= 26.144\ngini = 0.46\nsamples = 120\nvalue = [77, 43]\nclass = Died", fillcolor="#f4c7a8"] ;
34 -> 35 ;
36 [label="gini = 0.0\nsamples = 10\nvalue = [10, 0]\nclass = Died", fillcolor="#e58139"] ;
35 -> 36 ;
37 [label="Age <= 53.0\ngini = 0.476\nsamples = 110\nvalue = [67, 43]\nclass = Died", fillcolor="#f6d2b8"] ;
35 -> 37 ;
38 [label="gini = 0.495\nsamples = 89\nvalue = [49, 40]\nclass = Died", fillcolor="#fae8db"] ;
37 -> 38 ;
39 [label="gini = 0.245\nsamples = 21\nvalue = [18, 3]\nclass = Died", fillcolor="#e9965a"] ;
37 -> 39 ;
40 [label="Fare <= 51.698\ngini = 0.204\nsamples = 433\nvalue = [383, 50]\nclass = Died", fillcolor="#e89153"] ;
34 -> 40 ;
41 [label="Age <= 13.0\ngini = 0.193\nsamples = 417\nvalue = [372, 45]\nclass = Died", fillcolor="#e89051"] ;
40 -> 41 ;
42 [label="gini = 0.444\nsamples = 12\nvalue = [8, 4]\nclass = Died", fillcolor="#f2c09c"] ;
41 -> 42 ;
43 [label="gini = 0.182\nsamples = 405\nvalue = [364, 41]\nclass = Died", fillcolor="#e88f4f"] ;
41 -> 43 ;
44 [label="Fare <= 63.023\ngini = 0.43\nsamples = 16\nvalue = [11, 5]\nclass = Died", fillcolor="#f1ba93"] ;
40 -> 44 ;
45 [label="gini = 0.408\nsamples = 7\nvalue = [2, 5]\nclass = Survived", fillcolor="#88c4ef"] ;
44 -> 45 ;
46 [label="gini = 0.0\nsamples = 9\nvalue = [9, 0]\nclass = Died", fillcolor="#e58139"] ;
44 -> 46 ;
}